1.441
1.628
1.934
1.854
1.875
1.912
1.831
1.882
1.949
2.043
1.987
1.923
1.941
1.933
1.928
1.813
1.678
1.536
1.409
1.398
1.471
1.582
1.947
2.030
1.939
2.366
1.812
1.501
1.595
1.330
1.331
1.707
1.548
1.377
1.321
1.240
1.231
1.243
1.362
1.277
1.224
1.497
2.045
1.696
1.346
1.369
1.504
1.476
1.288
1.289
1.589
1.372
1.258
1.295
1.248
1.251
1.256
1.299
1.793
1.606
1.185
1.188
1.169
1.216
1.353
1.449
1.237
1.104
1.060
1.257
1.274
1.251
1.258
1.145
1.232
1.159
2.116
1.173
1.224
1.298
1.384
1.246
1.110
1.085
1.342
1.224
1.169
1.072
1.725
1.165
1.074
1.096
1.087
1.844
1.226
1.147
1.158
0.983
1.082
1.042
1.021
0.946
0.925
0.914
1.581
1.074
1.655
1.096
0.883
0.866
0.882
0.950
0.932
1.261
1.009
0.758
0.841
0.910
0.909
0.861
0.811
1.000
1.017
0.848
0.819
0.820
0.801
1.026
1.019
1.020
1.155
0.915
0.762
0.749
0.856
0.803
0.840
0.819
0.850
0.815
0.835
0.834
0.822
0.818
0.734
0.706
0.787
0.814
0.733
0.718
1.069
1.137
0.794
0.739
0.792
0.692
0.711
0.728
0.729
0.673
0.947
0.813
0.650
0.696
0.716
0.605
0.550
0.761
0.641
0.548
0.636
0.623
0.549
0.567
0.538
0.515
0.510
0.515
0.514
0.507
0.492
0.589
0.757
0.844
0.471
1.008
0.515
0.462
0.439
0.546
0.533
0.510
1.156
0.503
0.520
0.407
0.395
0.391
0.541
0.402
0.391
0.461
0.385
0.426
0.366
0.842
0.416
0.414
0.894
0.431
0.416
0.360
0.393
0.337
0.398
0.519
0.390
0.325
0.308
1.127
0.610
0.331
0.296
0.362
0.377
0.311
0.330
0.285
0.304
1.036
0.856
0.429
0.284
0.966
0.559
0.330
0.283
0.871
1.314
0.735
0.332
0.327
0.246
0.205
0.289
0.312
0.223
0.770
0.575
0.468
0.863
1.204
0.941
1.168
0.304
0.181
0.178
0.175
0.272
0.139
0.426
0.213
0.201
0.143
0.151
0.294
0.181
0.146
0.123
0.172
0.256
0.136
0.200
0.125
0.617
0.174
0.125
0.960
0.213
0.216
0.206
0.219
0.120
0.087
0.530
0.182
0.065
0.078
0.087
0.174
0.993
0.374
0.079
0.062
0.357
0.282
0.350
0.268
0.187
0.168
0.379
0.154
0.464
0.205
0.017
0.766
0.355
0.089
0.051
0.129
0.066
0.123
0.102
0.128
0.142
0.447
0.334
0.133
0.048
-0.007
0.008
-0.001
-0.009
0.001
0.188
0.435
-0.039
-0.042
0.205
0.052
-0.051
-0.064
-0.067
-0.070
-0.101
0.326
0.749
0.130
0.027
-0.051
-0.062
-0.065
-0.077
-0.072
0.034
0.061
-0.066
-0.093
-0.097
0.062
0.175
0.058
0.069
-0.058
0.089
-0.068
-0.105
-0.033
-0.010
-0.083
-0.112
-0.021
-0.096
-0.130
-0.101
-0.131
-0.110
-0.018
-0.108
-0.141
-0.163
-0.059
0.003
-0.020
-0.121
-0.186
-0.169
-0.186
-0.180
-0.109
-0.130
-0.175
-0.146
-0.173
-0.148
0.099
0.092
-0.126
-0.111
-0.034
0.033
-0.130
-0.133
-0.036
-0.119
0.498
0.124
-0.054
-0.143
-0.074
-0.131
-0.141
-0.054
-0.155
-0.154
0.695
0.104
0.085
-0.120
-0.186
0.219
-0.074
-0.079
-0.154
-0.072
-0.153
-0.200
-0.116
0.232
-0.050
0.526
0.161
-0.206
0.125
-0.093
-0.248
-0.192
0.116
-0.100
-0.076
-0.131
-0.252
-0.267
-0.276
-0.199
-0.194
-0.233
-0.193
0.295
0.012
0.058
-0.085
-0.228
-0.131
-0.313
-0.256
-0.259
-0.272
-0.321
-0.176
-0.316
-0.255
0.048
-0.216
-0.357
-0.234
-0.337
-0.302
-0.215
-0.336
-0.157
-0.243
-0.056
-0.251
-0.324
-0.033
-0.274
-0.347
-0.292
-0.297
0.408
0.700
-0.047
-0.437
-0.425
-0.151
-0.099
-0.308
-0.403
-0.461
-0.505
-0.459
-0.446
-0.363
-0.400
-0.435
-0.372
-0.355
-0.370
-0.463
-0.176
-0.461
-0.340
-0.398
0.185
-0.409
-0.467
-0.495
-0.456
-0.372
-0.405
-0.500
-0.020
-0.361
-0.520
-0.517
-0.414
-0.421
0.237
-0.196
-0.508
-0.119
-0.354
-0.507
-0.186
-0.359
-0.495
-0.470
-0.401
-0.332
-0.397
-0.416
-0.069
0.471
-0.502
-0.565
-0.548
-0.461
-0.564
-0.567
-0.588
-0.530
-0.508
-0.501
-0.584
-0.155
-0.514
0.572
-0.421
-0.359
-0.530
-0.513
-0.531
-0.477
-0.488
-0.545
-0.472
-0.493
-0.554
-0.041
-0.290
-0.456
-0.475
-0.559
-0.595
-0.591
-0.542
-0.503
-0.548
-0.580
-0.535
-0.512
-0.501
-0.552
-0.614
-0.533
-0.550
-0.545
-0.553
-0.631
-0.514
-0.487
-0.640
-0.553
-0.647
-0.541
-0.641
-0.566
-0.649
-0.464
-0.544
-0.144
-0.519
-0.630
-0.598
-0.631
-0.580
-0.375
-0.498
-0.591
-0.238
-0.365
-0.590
-0.491
-0.626
-0.685
-0.629
-0.580
-0.515
-0.494
-0.574
-0.566
-0.615
-0.426
-0.491
-0.673
-0.544
-0.352
-0.692
-0.685
-0.688
-0.518
-0.585
-0.678
-0.564
-0.671
-0.678
-0.617
-0.685
-0.669
-0.587
-0.596
-0.269
-0.508
-0.607
-0.606
-0.688
-0.695
-0.622
-0.600
-0.600
-0.610
-0.546
-0.519
-0.557
-0.687
-0.655
-0.664
-0.629
-0.573
-0.529
0.038
-0.167
-0.592
-0.659
-0.566
-0.580
-0.589
-0.428
-0.219
-0.552
-0.565
-0.459
-0.316
-0.376
-0.468
-0.417
-0.549
-0.513
-0.573
-0.574
-0.549
-0.475
-0.526
-0.393
-0.030
-0.255
-0.215
-0.452
-0.529
-0.519
-0.538
-0.466
-0.195
-0.390
-0.540
-0.545
-0.546
-0.633
-0.530
-0.479
-0.440
-0.337
-0.388
-0.417
-0.424
-0.413
-0.366
-0.330
-0.243
0.464
-0.289
-0.422
-0.345
-0.421
-0.440
0.285
-0.285
-0.361
0.122
-0.268
-0.248
-0.405
-0.435
-0.448
-0.461
0.091
-0.260
-0.430
-0.461
-0.460
-0.477
-0.404
-0.394
-0.435
-0.383
-0.370
-0.428
-0.466
-0.490
-0.408
-0.365
-0.428
-0.464
-0.465
-0.470
-0.477
-0.480
-0.483
-0.477
-0.380
-0.473
-0.436
-0.409
-0.394
-0.449
-0.440
-0.468
-0.402
-0.470
-0.047
-0.306
-0.429
-0.472
-0.427
-0.472
-0.369
-0.454
-0.461
-0.371
-0.440
-0.478
-0.359
-0.416
-0.450
-0.433
-0.220
-0.364
0.036
-0.087
-0.435
-0.474
-0.421
-0.434
-0.416
-0.336
-0.439
-0.373
-0.304
-0.417
0.034
0.110
-0.295
-0.433
-0.293
-0.295
-0.350
-0.325
-0.422
0.421
0.451
-0.126
0.075
-0.228
-0.295
-0.370
-0.375
-0.401
-0.335
-0.372
-0.608
-0.517
-0.448
-0.443
-0.414
-0.131
-0.206
-0.370
-0.360
-0.373
-0.376
-0.410
0.097
-0.396
-0.329
-0.222
-0.270
-0.206
-0.327
-0.254
-0.103
0.593
-0.234
-0.346
-0.276
0.585
-0.126
-0.335
0.300
-0.081
-0.306
-0.339
-0.217
-0.036
-0.265
-0.342
-0.123
-0.286
-0.241
-0.304
-0.265
-0.288
-0.064
-0.169
-0.297
-0.118
-0.188
-0.257
-0.188
-0.209
-0.270
-0.323
-0.207
-0.230
-0.303
-0.126
0.071
0.450
-0.208
-0.207
0.474
0.222
-0.132
-0.270
-0.267
-0.171
-0.190
-0.259
-0.180
-0.239
0.210
-0.123
-0.158
-0.120
-0.122
-0.233
-0.155
0.029
-0.134
-0.083
-0.163
0.066
-0.057
-0.235
-0.190
-0.067
-0.146
-0.181
-0.102
-0.241
0.038
-0.126
-0.033
-0.086
-0.088
-0.180
-0.058
-0.073
-0.160
-0.163
-0.173
-0.042
-0.043
-0.110
-0.104
-0.069
-0.072
-0.125
-0.074
-0.088
-0.099
-0.099
-0.039
-0.029
0.031
-0.040
-0.008
0.330
0.081
-0.014
-0.050
0.018
0.038
0.258
0.243
0.103
0.102
0.115
0.118
1.015
0.032
0.009
0.326
0.073
0.210
0.136
0.161
0.169
0.104
0.130
0.122
0.649
1.020
1.385
0.330
0.178
0.280
0.191
0.182
0.191
0.190
0.259
0.282
0.289
0.251
0.578
0.490
0.332
0.263
0.592
0.410
0.315
0.333
0.393
0.421
0.408
0.418
0.901
0.758
0.443
0.420
0.335
0.352
0.409
0.397
0.438
0.394
0.359
0.380
1.316
0.508
0.413
0.402
0.389
0.385
0.406
0.457
0.497
0.438
0.491
0.506
0.447
0.503
0.450
0.407
0.429
0.431
0.473
0.449
0.547
0.608
0.546
0.469
0.458
0.469
0.506
0.575
0.531
0.540
0.574
0.564
0.591
0.488
0.595
0.652
0.558
0.546
1.407
0.635
0.590
0.602
1.455
0.728
0.625
1.194
0.806
0.595
0.556
0.548
0.505
0.828
0.613
0.560
0.541
0.803
0.686
0.577
0.662
0.599
0.548
0.517
0.564
0.995
1.036
0.709
0.676
0.715
0.683
0.578
0.572
0.687
0.580
0.699
0.684
0.948
0.606
0.607
0.690
0.618
0.688
1.293
0.732
0.985
0.738
1.471
0.874
0.663
0.679
0.622
0.626
0.722
0.734
0.750
0.675
0.685
0.703
0.623
0.574
0.486
0.454
0.575
0.620
0.589
0.590
0.631
0.556
0.555
0.686
0.707
0.696
0.709
0.633
0.630
0.717
0.684
0.741
0.728
0.779
0.674
0.641
0.653
0.706
0.655
0.664
0.645
0.739
0.722
0.674
0.669
0.660
1.070
0.787
0.680
0.731
0.786
0.750
0.740
0.659
0.704
0.674
0.665
0.670
0.737
0.708
0.793
0.803
0.747
0.746
0.723
0.750
0.795
0.727
1.060
1.031
0.762
0.773
0.803
0.781
0.858
0.745
0.772
0.814
0.761
0.887
0.854
0.873
0.729
0.611
0.801
0.820
0.723
0.842
1.114
0.875
0.766
0.811
0.646
0.759
0.655
0.625
0.591
0.630
0.674
0.694
0.725
0.776
0.683
0.624
0.661
0.628
0.643
0.532
0.472
0.538
0.616
0.483
0.250
0.377
0.404
1.081
0.778
1.123
0.262
0.311
0.217
0.391
0.913
0.408
0.226
0.390
0.219
0.190
0.183
0.241
0.286
0.227
0.264
0.259
0.303
0.445
0.510
0.555
0.563
0.549
0.473
0.418
0.497
0.524
0.441
0.430
0.464
0.369
0.439
0.406
1.442
0.609
0.506
0.503
0.730
0.717
0.574
0.443
0.509
0.596
1.483
0.723
0.697
0.648
0.801
0.645
0.659
0.615
0.639
0.596
0.532
0.517
0.586
0.892
0.662
0.543
1.049
0.741
0.404
0.270
0.220
0.246
0.557
0.684
0.469
0.384
0.429
0.459
0.365
0.780
0.342
0.519
0.362
0.213
0.106
0.126
0.386
0.335
0.272
0.285
0.480
0.516
0.599
0.666
0.639
0.615
0.609
0.725
0.773
0.707
0.691
0.771
1.129
0.819
0.898
0.595
0.384
1.165
1.210
0.715
0.504
0.483
0.483
0.469
0.593
0.430
0.482
0.673
0.358
0.786
0.421
0.687
0.669
0.839
0.802
0.723
0.650
0.604
0.667
0.704
0.620
0.651
0.993
0.760
0.622
0.621
0.720
1.455
1.704
1.016
0.639
0.962
0.859
0.759
0.883
0.707
0.650
0.659
0.523
0.487
0.653
0.858
0.687
0.689
0.581
0.647
0.626
0.571
0.573
0.550
0.541
0.442
0.471
0.434
0.538
0.660
0.615
0.691
0.554
0.536
0.553
0.638
0.611
0.574
0.631
0.718
0.661
0.592
0.687
0.692
0.889
0.722
0.359
0.305
0.376
0.273
0.300
0.547
0.490
0.598
0.482
1.653
0.747
0.503
0.494
1.167
0.675
0.418
0.303
0.488
0.673
0.520
0.415
0.430
0.451
0.387
0.440
0.383
0.471
0.428
0.393
1.121
0.674
0.452
0.360
0.316
0.259
0.330
0.465
0.444
0.447
0.478
0.567
0.693
0.663
0.379
0.196
0.353
0.287
0.871
0.520
0.813
0.560
0.525
1.356
0.755
0.571
0.588
0.469
0.452
1.149
0.512
0.235
0.358
0.391
0.409
0.834
1.179
0.562
0.580
0.559
0.415
0.400
0.437
0.532
0.667
0.603
0.480
0.467
0.584
0.461
0.438
0.453
1.343
0.629
0.410
0.366
0.701
0.448
0.413
0.374
0.441
0.406
0.295
0.372
0.267
0.208
0.102
0.083
0.162
0.043
0.406
0.358
0.384
0.466
0.421
0.384
0.489
0.513
0.543
0.537
0.538
0.452
0.443
0.710
0.593
0.482
0.497
0.413
0.822
1.395
0.374
0.371
0.358
0.346
0.396
0.480
0.369
0.379
0.370
0.348
0.360
0.336
0.343
0.312
0.317
0.446
0.451
0.345
0.326
0.453
0.394
0.369
0.345
0.249
0.357
0.193
0.738
0.416
0.241
0.316
0.331
0.400
0.427
0.370
0.273
0.334
0.247
0.100
0.040
0.073
0.320
0.454
0.392
0.309
0.361
0.347
0.297
0.568
0.244
0.358
0.221
0.208
0.221
0.332
1.173
0.462
0.239
0.406
0.277
0.190
0.675
0.388
0.193
0.206
0.255
0.196
0.186
0.201
0.500
0.892
0.525
0.266
0.245
0.210
0.159
0.080
0.159
0.116
0.113
0.219
0.426
0.113
0.128
0.235
0.253
0.341
0.186
0.453
0.212
0.089
0.120
0.041
0.200
0.241
0.219
0.314
0.185
0.128
0.113
0.156
0.236
0.635
0.314
0.155
0.544
1.150
0.615
0.289
0.308
0.212
0.128
0.117
0.177
0.124
-0.029
-0.104
0.113
0.226
0.165
0.126
0.023
0.378
0.173
0.224
0.302
-0.028
0.038
0.471
0.208
0.099
0.108
0.060
0.147
0.357
0.191
0.086
0.181
0.164
0.109
0.062
0.113
0.103
0.088
0.299
0.038
-0.071
0.182
0.019
0.006
0.103
0.070
0.056
-0.027
-0.170
0.027
0.042
0.041
0.092
0.149
0.152
0.023
0.402
0.082
0.407
0.170
-0.045
0.688
0.653
0.216
-0.013
0.396
0.228
-0.048
-0.053
0.147
0.082
0.005
-0.030
-0.081
0.002
-0.023
-0.092
0.020
0.066
0.010
0.199
0.488
0.155
0.076
0.060
0.056
-0.028
-0.031
-0.001
-0.053
-0.014
0.093
0.122
0.129
0.280
0.027
-0.016
-0.019
-0.017
-0.025
0.074
0.053
-0.026
-0.015
-0.136
0.077
0.025
-0.072
-0.034
-0.117
-0.114
-0.080
-0.108
0.309
-0.004
0.003
1.230
-0.113
-0.156
0.090
-0.113
-0.234
-0.303
-0.267
-0.103
-0.088
-0.010
0.005
-0.150
-0.234
-0.208
-0.035
-0.152
-0.001
0.244
-0.053
-0.198
-0.237
-0.094
-0.004
0.047
-0.008
0.078
0.448
0.989
0.404
0.049
-0.001
-0.026
-0.032
0.006
-0.023
-0.056
-0.061
-0.020
0.225
-0.072
-0.211
0.094
0.432
-0.095
0.200
-0.114
-0.111
-0.055
-0.241
-0.058
-0.095
-0.047
-0.114
0.174
-0.143
-0.092
-0.113
-0.130
-0.028
-0.035
-0.003
-0.115
-0.189
-0.149
-0.279
-0.170
-0.091
0.119
-0.029
-0.161
-0.124
0.335
0.174
-0.333
-0.197
-0.268
-0.331
-0.318
-0.400
-0.358
-0.071
-0.614
-0.697
-0.464
-0.462
-0.350
-0.259
-0.154
-0.263
-0.342
-0.361
-0.329
-0.418
-0.529
-0.450
-0.644
-0.629
-0.646
-0.561
-0.660
-0.517
-0.524
-0.474
-0.466
-0.461
-0.431
-0.513
-0.527
-0.588
-0.558
-0.625
-0.807
-0.772
-0.516
-0.611
-0.822
-0.917
-0.732
-0.563
-0.638
-0.793
-0.908
-0.711
-0.724
-0.207
-0.340
-0.924
-1.107
-1.050
-1.117
-1.162
-0.197
-0.992
-1.140
-1.058
-0.565
-1.028
-1.070
-1.089
-0.662
-0.653
-0.705
-0.705
-0.674
-0.781
-0.700
-0.420
-0.383
-0.576
-0.433
-0.588
-0.545
-0.640
-0.764
-0.709
-0.610
-0.607
-0.529
-0.668
-0.655
-0.605
-0.742
-0.623
-0.682
-0.779
-0.620
-0.579
-0.625
-0.636
-0.725
-0.788
-0.794
-0.706
-0.709
-0.876
-0.868
-0.391
-0.864
-0.790
-0.814
-0.803
-0.768
-0.677
-0.620
0.075
-0.404
-0.593
-0.554
-0.633
-0.172
-0.508
-0.612
-0.488
0.036
-0.335
-0.559
-0.494
-0.505
-0.551
-0.546
-0.629
-0.660
-0.369
-0.450
-0.588
-0.528
-0.851
-0.544
-0.598
-0.581
-0.764
-0.847
-0.740
-0.625
-0.652
-0.623
-0.595
-0.847
-0.699
-0.862
-0.953
-0.792
-0.759
-0.308
-0.197
-0.520
-0.611
-0.696
-0.671
-0.655
-0.656
-0.571
-0.563
-0.610
-0.544
-0.511
-0.605
-0.542
-0.633
-0.568
0.134
-0.220
-0.937
-0.918
-0.689
-0.670
-0.639
-0.566
-0.669
-0.586
0.160
-0.895
-0.556
-1.236
-1.104
-0.966
-1.013
-0.213
-0.780
-0.847
-0.755
-0.254
-0.279
-0.790
-0.855
-0.859
-0.888
-0.837
-0.204
-0.625
-0.059
-0.491
-0.465
-0.680
-0.933
-0.797
-0.878
-1.151
-1.110
-1.119
-1.203
-1.202
-1.187
-1.300
-1.123
-1.206
-1.100
-1.038
-0.990
-1.096
-1.318
-1.021
-0.988
-1.180
-1.141
-0.714
-0.891
-0.927
-0.974
-0.901
-1.050
-1.272
-1.239
-1.207
-1.282
-1.325
-1.254
-1.322
-1.206
-1.301
-1.338
-1.201
-1.241
-1.187
-0.650
-0.815
-1.076
-0.903
-0.770
-0.849
-0.888
-1.065
-1.159
-0.766
-0.157
-1.120
-1.043
-1.182
-1.226
-1.322
-1.155
-1.066
-1.044
-0.742
-1.118
-1.175
-1.324
-1.031
-1.078
-1.097
-1.072
-0.965
-0.870
-0.909
-1.023
-1.083
-1.137
-0.990
-0.844
-0.912
-0.971
-1.022
-1.057
-1.074
-1.101
-1.049
-0.950
-0.957
-0.896
-0.823
-0.308
-0.421
-0.752
-0.807
-0.901
-0.354
-1.077
-0.710
-0.753
-0.856
-0.739
-1.012
-0.925
-0.991
-0.903
-0.742
-0.863
-0.782
-0.801
-0.879
-0.917
-0.932
-0.912
-0.909
-0.889
-0.894
-0.923
-0.892
-0.885
-0.744
-0.855
-0.838
-0.875
-0.898
-0.962
-0.910
-0.950
-0.850
-0.866
-0.584
-0.704
-0.836
-0.771
-0.846
-0.804
-0.717
-0.319
-0.422
-0.801
-0.876
-0.887
-0.876
-0.727
-0.695
-0.785
0.151
-0.722
-0.745
-0.778
-0.791
-0.703
-0.598
-0.716
-0.706
-0.796
-0.873
-0.739
-0.807
-0.801
-0.847
-0.839
-0.798
-0.759
-0.554
-0.635
-0.679
-0.668
-0.763
-0.638
-0.625
-0.699
-0.645
-0.710
-0.692
-0.745
-0.473
-0.639
-0.775
-0.641
-0.492
-0.567
-0.602
-0.639
-0.680
-0.665
-0.645
-0.799
-0.315
-0.640
-0.541
-0.564
-0.679
-0.694
-0.665
-0.540
-0.617
-0.687
-0.716
-0.691
-0.630
-0.643
-0.659
-0.672
-0.664
-0.654
-0.584
-0.669
-0.665
-0.020
-0.285
-0.622
-0.561
-0.580
-0.647
-0.610
-0.625
-0.676
-0.690
-0.686
0.230
-0.508
-0.712
-0.574
-0.497
-0.673
-0.680
-0.575
-0.329
-0.548
-0.539
-0.536
-0.545
-0.632
-0.657
-0.381
-0.554
-0.582
-0.635
-0.656
-0.552
-0.570
-0.570
-0.585
-0.666
-0.735
-0.691
-0.581
-0.484
-0.618
-0.651
-0.704
-0.607
-0.240
-0.653
-0.643
-0.693
-0.684
-0.604
-0.662
0.228
-0.359
-0.564
-0.548
-0.640
-0.739
-0.768
-0.805
-0.488
-0.690
-0.507
-0.646
-0.771
0.052
-0.419
-0.814
-0.799
-0.693
-0.692
-0.745
-0.785
-0.758
-0.680
-0.655
-0.780
-0.859
-0.814
-0.819
-0.878
-0.741
-0.615
-0.678
-0.731
-0.814
-0.708
-0.817
-0.743
-0.700
-0.618
-0.531
-0.661
-0.634
-0.681
-0.711
-0.662
-0.635
-0.666
-0.285
-0.598
-0.602
-0.244
0.254
-0.251
-0.550
-0.615
-0.460
-0.553
-0.635
-0.641
-0.512
-0.565
0.125
0.028
-0.477
-0.504
-0.435
-0.478
-0.582
-0.512
-0.497
-0.381
-0.399
-0.441
-0.367
-0.523
0.563
-0.325
-0.395
-0.385
-0.434
-0.337
-0.416
-0.294
-0.299
0.584
-0.059
-0.351
-0.325
-0.360
-0.352
-0.361
-0.289
-0.327
-0.360
-0.209
-0.069
-0.017
-0.198
-0.253
-0.208
-0.253
-0.254
0.032
0.113
-0.054
-0.257
0.250
0.397
-0.179
-0.122
-0.247
-0.175
0.084
-0.153
0.193
-0.074
-0.183
-0.161
-0.189
-0.120
-0.063
-0.024
0.365
0.529
-0.008
-0.053
-0.160
-0.180
-0.059
-0.018
0.032
0.004
-0.118
0.060
-0.085
-0.162
-0.097
-0.070
-0.117
-0.110
-0.103
-0.040
-0.081
-0.114
-0.068
-0.021
0.356
-0.017
-0.120
-0.141
-0.128
-0.021
0.033
-0.019
0.628
-0.040
-0.071
0.625
0.087
0.016
-0.059
-0.120
0.435
0.022
-0.128
0.011
-0.076
-0.094
-0.085
0.090
-0.020
0.256
0.084
-0.022
-0.030
0.016
-0.013
-0.054
-0.071
0.310
0.395
0.119
0.033
0.012
0.159
0.315
1.067
0.185
0.220
0.233
0.140
0.226
0.162
0.142
0.309
0.378
0.201
0.174
0.183
0.254
0.333
0.394
0.371
0.288
0.187
0.309
0.437
0.404
0.416
0.347
0.321
0.325
0.346
0.389
0.436
0.471
0.401
0.343
0.333
0.700
0.507
0.484
0.441
0.348
0.465
0.482
1.018
0.405
0.342
0.812
0.424
0.382
0.497
0.714
0.536
0.547
0.430
0.531
1.414
0.518
0.659
0.504
0.417
0.510
0.485
1.150
0.605
0.727
0.592
0.489
0.458
0.466
0.811
0.724
0.566
0.539
0.543
0.745
0.822
0.644
0.597
0.594
0.657
0.702
0.585
0.602
0.670
0.675
0.678
0.586
1.334
0.548
0.546
0.687
0.762
0.704
0.729
0.766
0.714
0.749
0.965
0.762
0.729
0.724
0.940
1.445
0.861
0.670
0.753
0.718
0.732
0.737
0.863
0.863
0.769
0.742
0.742
0.732
0.905
0.803
0.726
0.733
0.721
0.704
0.773
0.765
0.761
0.827
0.726
0.765
0.662
0.752
0.771
0.671
1.474
0.764
1.540
0.871
1.528
1.025
0.677
0.611
0.759
0.703
0.683
0.729
0.746
0.739
0.726
0.768
0.711
0.728
0.723
0.790
0.780
0.827
0.913
0.870
0.845
0.871
0.785
0.781
0.770
0.899
0.966
0.988
0.854
0.905
0.951
0.910
0.918
1.000
1.018
1.007
1.089
0.983
0.962
0.971
0.922
1.025
0.946
0.914
0.993
0.997
0.967
0.979
1.167
1.142
1.025
0.976
0.988
1.204
1.183
0.997
0.964
1.348
1.380
1.032
1.048
1.242
1.182
1.195
1.142
1.239
1.231
1.164
1.210
1.196
1.163
1.122
1.111
1.100
1.181
1.162
1.206
1.094
1.108
1.208
1.291
1.271
1.201
1.149
1.202
1.375
1.279
1.223
1.484
1.434
1.251
1.244
1.184
1.277
1.284
1.330
1.514
1.236
1.299
1.267
1.303
1.311
1.298
1.235
1.276
1.261
1.362
1.274
1.312
1.289
1.185
1.259
1.356
1.488
1.332
1.348
1.772
1.495
1.222
1.364
1.633
1.286
1.160
1.658
1.371
1.225
1.332
1.468
1.362
1.866
1.597
1.344
1.245
1.415
1.550
1.414
1.356
1.378
1.392
1.481
1.487
1.335
1.301
1.401
1.412
1.356
1.371
1.408
1.356
1.837
1.424
1.792
2.683
1.434
2.468
1.650
1.477
1.423
1.432
1.396
2.001
1.719
1.608
1.599
1.596
1.529
1.801
1.648
1.536
1.473
1.654
1.826
1.706
1.731
1.685
1.538
1.688
1.762
1.642
1.631
1.615
1.670
1.643
1.652
1.753
1.845
1.887
1.786
1.930
1.701
1.834
2.326
1.852
1.903
1.833
2.229
1.814
1.878
1.793
1.902
1.882
1.808
1.898
2.288
2.066
1.829
2.251
1.883
1.797
1.806
1.927
1.877
1.958
1.869
1.849
1.937
1.896
1.955
2.026
1.918
1.926
1.941
1.855
1.834
1.874
1.948
2.789
2.171
1.864
2.154
2.013
2.029
1.972
2.449
2.074
1.833
1.984
1.959
1.881
1.935
1.967
2.188
2.167
1.987
1.887
1.906
1.884
1.876
2.527
2.372
1.949
1.881
1.916
2.038
2.017
2.053
2.367
2.417
1.989
1.972
1.995
2.049
1.990
2.050
1.967
1.945
1.877
1.865
2.258
2.037
2.018
1.979
1.953
2.011
1.907
1.936
1.924
1.913
1.926
2.060
2.034
2.021
2.161
2.031
2.061
2.008
1.944
1.893
1.897
1.967
1.982
1.986
2.064
2.065
2.135
2.278
2.138
1.966
2.000
1.881
1.980
2.000
1.989
2.341
2.818
2.096
2.023
1.982
1.978
1.945
1.981
2.274
2.016
1.924
1.992
2.024
2.056
2.062
2.279
2.128
1.978
2.028
1.974
1.913
1.907
1.948
1.957
1.916
2.029
2.005
1.973
2.046
2.075
2.037
1.971
1.903
2.000
1.894
1.983
2.058
2.347
2.102
1.943
1.945
1.964
2.012
1.943
1.974
1.864
1.902
1.940
1.943
1.909
1.945
1.878
1.875
1.815
1.847
2.026
2.522
2.481
1.955
1.795
2.222
2.753
1.925
1.803
1.779
1.854
2.083
1.809
